//Numpy array shape [10, 10]
//Min -1.402707338333
//Max 1.443733334541
//Number of zeros 0

#ifndef W4_H_
#define W4_H_

#ifndef __SYNTHESIS__
model_default_t w4[100];
#else
model_default_t w4[100] = {-0.76484275, -0.30216733, 1.44373333, 1.05357063, -0.66750300, 0.34491920, -0.26353249, 0.23383155, -0.50554490, -0.87260896, 0.63642454, -0.53066188, 0.96157825, -0.11474960, -0.46303821, 0.10109714, -0.68943632, 0.50501508, 0.55137897, -0.63033426, -1.16946280, 1.42643368, -0.19542670, 0.34493750, -0.53866315, -0.10783458, -0.04402765, -0.36808446, 0.35947007, -0.21726675, -0.30336037, -0.58241445, -0.64664155, 0.05610545, -0.52686226, 1.03701758, -0.10225413, -0.59155661, -0.06965936, 0.66932756, -0.15280682, -0.60438699, 0.26844561, -0.69516295, 1.10872936, -0.24346721, 1.03990293, -1.16151810, 0.44131008, -0.28427485, 0.97464490, -0.54354334, -0.11677916, -0.33824271, -0.79612023, 1.01471305, 0.52630234, -0.41207570, -0.05087921, -0.00793228, 0.70921350, -0.38462895, 0.27354059, 0.72257882, -0.41275600, -0.95827788, -0.28891322, -0.21055815, 0.38558814, 0.61339748, 0.25769854, -0.10267763, -0.42237923, 0.66359001, 0.22381164, 0.29474881, -0.02263648, 0.43892533, -1.03397548, -0.81593043, -0.37444034, -0.34402561, 0.28348917, -0.37047005, -0.08786199, -0.91043925, 0.28195390, 1.33990145, -0.69646251, 0.71950895, -0.33954981, -0.75354666, -0.49928001, 0.27456340, 0.89917171, 0.44579631, -1.40270734, 0.70583999, 0.29518682, 0.62989032};
#endif

#endif
