0.01736940629780292510986328125000 0.05410316959023475646972656250000 0.00423319963738322257995605468750 -0.02337971702218055725097656250000 -0.04412563890218734741210937500000 -0.05536001548171043395996093750000 0.06385448575019836425781250000000 -0.01296197809278964996337890625000 0.00731582520529627799987792968750 -0.04647089540958404541015625000000 -0.03600560128688812255859375000000 -0.10015080124139785766601562500000 -0.14518392086029052734375000000000 -0.12216516584157943725585937500000 -0.06643392890691757202148437500000 -0.08480378240346908569335937500000 -0.07260764390230178833007812500000 -0.03215117380023002624511718750000 0.02681272290647029876708984375000 0.05183914676308631896972656250000 0.00916230492293834686279296875000 0.06333186477422714233398437500000 0.00470412056893110275268554687500 0.07740101218223571777343750000000 0.11898095160722732543945312500000 0.12126364558935165405273437500000 0.14117354154586791992187500000000 0.18030999600887298583984375000000 0.15307649970054626464843750000000 0.15772636234760284423828125000000 0.10232712328433990478515625000000 0.14063367247581481933593750000000 0.04443079978227615356445312500000 0.04221403226256370544433593750000 -0.02453088387846946716308593750000 -0.11413422226905822753906250000000 0.07923558354377746582031250000000 -0.00400967150926589965820312500000 0.06524607539176940917968750000000 -0.02850447595119476318359375000000 0.08594088256359100341796875000000 0.09975488483905792236328125000000 0.14917613565921783447265625000000 0.21821399033069610595703125000000 0.24766679108142852783203125000000 0.37593883275985717773437500000000 0.35943442583084106445312500000000 0.31733781099319458007812500000000 0.31176343560218811035156250000000 0.21913871169090270996093750000000 0.19533804059028625488281250000000 0.14211824536323547363281250000000 0.07279317080974578857421875000000 -0.05889634415507316589355468750000 0.00687465211376547813415527343750 0.05880218744277954101562500000000 -0.02510823123157024383544921875000 0.02164605446159839630126953125000 0.06109133362770080566406250000000 0.10060904920101165771484375000000 0.11899209022521972656250000000000 0.13104024529457092285156250000000 0.20964762568473815917968750000000 0.27093395590782165527343750000000 0.27374258637428283691406250000000 0.31045106053352355957031250000000 0.21637646853923797607421875000000 0.23734807968139648437500000000000 0.13010206818580627441406250000000 0.17524813115596771240234375000000 0.08273795992136001586914062500000 -0.01443985383957624435424804687500 -0.00123516691382974386215209960938 0.02346215024590492248535156250000 0.00919750425964593887329101562500 0.03494340553879737854003906250000 0.01357628125697374343872070312500 0.00555988354608416557312011718750 0.02370848134160041809082031250000 0.08359504491090774536132812500000 0.13220818340778350830078125000000 0.27760761976242065429687500000000 0.29224872589111328125000000000000 0.14756348729133605957031250000000 0.15492241084575653076171875000000 0.09992679953575134277343750000000 0.10266487300395965576171875000000 0.15099695324897766113281250000000 0.07212578505277633666992187500000 0.03673265129327774047851562500000 0.00550438230857253074645996093750 0.03283315151929855346679687500000 0.02906937152147293090820312500000 0.03406571969389915466308593750000 -0.03846357762813568115234375000000 0.00864256639033555984497070312500 0.00350438035093247890472412109375 0.02371197752654552459716796875000 0.10687070339918136596679687500000 0.21713124215602874755859375000000 0.24143908917903900146484375000000 0.17905494570732116699218750000000 0.11911974847316741943359375000000 0.14743202924728393554687500000000 0.11929486691951751708984375000000 0.14533683657646179199218750000000 0.12896282970905303955078125000000 0.01594911515712738037109375000000 0.06505329906940460205078125000000 -0.00107895501423627138137817382812 -0.00410688063129782676696777343750 0.04537587240338325500488281250000 0.03919594362378120422363281250000 0.07317869365215301513671875000000 0.09165453165769577026367187500000 0.03741578757762908935546875000000 0.13639995455741882324218750000000 0.27998527884483337402343750000000 0.23569892346858978271484375000000 0.13574413955211639404296875000000 0.15469077229499816894531250000000 0.17775267362594604492187500000000 0.06791459769010543823242187500000 0.09261357039213180541992187500000 0.05824417620897293090820312500000 -0.00190627609845250844955444335938 0.07499562203884124755859375000000 0.02629727125167846679687500000000 0.07956185936927795410156250000000 0.06703895330429077148437500000000 0.06777162849903106689453125000000 0.09258439391851425170898437500000 0.01716388948261737823486328125000 -0.04915468394756317138671875000000 0.09731668233871459960937500000000 0.30114999413490295410156250000000 0.21430978178977966308593750000000 0.17120723426342010498046875000000 0.15474444627761840820312500000000 0.14411519467830657958984375000000 0.08319210261106491088867187500000 0.09971138834953308105468750000000 -0.00388138531707227230072021484375 -0.06579024344682693481445312500000 0.09422984719276428222656250000000 0.04931897670030593872070312500000 0.02878942526876926422119140625000 0.01774057745933532714843750000000 0.02531007118523120880126953125000 -0.00447910791262984275817871093750 -0.10108545422554016113281250000000 -0.10328692197799682617187500000000 0.03204272687435150146484375000000 0.16653217375278472900390625000000 0.16674759984016418457031250000000 0.21117705106735229492187500000000 0.19901648163795471191406250000000 0.15450429916381835937500000000000 0.07957331091165542602539062500000 0.03261560574173927307128906250000 -0.01603452302515506744384765625000 -0.00967707671225070953369140625000 0.02427734807133674621582031250000 -0.01745807752013206481933593750000 -0.06640549749135971069335937500000 -0.02847899682819843292236328125000 -0.03950783237814903259277343750000 -0.01531220972537994384765625000000 -0.18770737946033477783203125000000 -0.14829060435295104980468750000000 0.02048229053616523742675781250000 0.09044552594423294067382812500000 0.13378965854644775390625000000000 0.05767673626542091369628906250000 0.11615519970655441284179687500000 0.14120003581047058105468750000000 0.07129558175802230834960937500000 0.07973393797874450683593750000000 0.09181378036737442016601562500000 -0.05947920680046081542968750000000 -0.05414641276001930236816406250000 -0.09437830746173858642578125000000 -0.14353054761886596679687500000000 -0.17130540311336517333984375000000 -0.11806964874267578125000000000000 -0.11050356924533843994140625000000 -0.11718725413084030151367187500000 -0.10239194333553314208984375000000 -0.00538364890962839126586914062500 0.01712404191493988037109375000000 0.04352277889847755432128906250000 0.04063538461923599243164062500000 0.13995856046676635742187500000000 0.13781431317329406738281250000000 0.06008190661668777465820312500000 0.13560301065444946289062500000000 0.06172359734773635864257812500000 0.04410073906183242797851562500000 -0.03701218962669372558593750000000 -0.21668408811092376708984375000000 -0.15239368379116058349609375000000 -0.16766229271888732910156250000000 -0.11281502991914749145507812500000 -0.17414699494838714599609375000000 -0.13803790509700775146484375000000 -0.15307880938053131103515625000000 -0.07655536383390426635742187500000 -0.10522945970296859741210937500000 -0.04993034154176712036132812500000 0.00161130283959209918975830078125 0.04181514680385589599609375000000 0.03545661643147468566894531250000 0.08933487534523010253906250000000 0.07999993115663528442382812500000 0.06698424369096755981445312500000 0.03473594039678573608398437500000 -0.04304845258593559265136718750000 -0.16133916378021240234375000000000 -0.15299752354621887207031250000000 -0.13601227104663848876953125000000 -0.25692632794380187988281250000000 -0.21856103837490081787109375000000 -0.23841966688632965087890625000000 -0.16276477277278900146484375000000 -0.16003280878067016601562500000000 -0.10139729082584381103515625000000 -0.00986988283693790435791015625000 -0.00558662181720137596130371093750 0.04157376661896705627441406250000 0.01113264821469783782958984375000 0.09711213409900665283203125000000 0.02507572434842586517333984375000 0.03059849329292774200439453125000 -0.02271711081266403198242187500000 -0.10559546947479248046875000000000 -0.10286804288625717163085937500000 -0.19679312407970428466796875000000 -0.19665329158306121826171875000000 -0.21616524457931518554687500000000 -0.26213923096656799316406250000000 -0.21962252259254455566406250000000 -0.28375244140625000000000000000000 -0.17148461937904357910156250000000 -0.09508454799652099609375000000000 -0.02046556957066059112548828125000 -0.01496303640305995941162109375000 -0.00319109740667045116424560546875 0.05536507070064544677734375000000 0.05140131711959838867187500000000 0.05295787006616592407226562500000 0.04096715897321701049804687500000 -0.04199168831110000610351562500000 0.02806071937084197998046875000000 -0.05506707727909088134765625000000 -0.12132994830608367919921875000000 -0.11467393487691879272460937500000 -0.11410691589117050170898437500000 -0.19666881859302520751953125000000 -0.26181387901306152343750000000000 -0.20457710325717926025390625000000 -0.11142650246620178222656250000000 -0.03172342851758003234863281250000 -0.07334902882575988769531250000000 -0.01051126141101121902465820312500 0.03861696273088455200195312500000 0.02757734805345535278320312500000 0.06756064295768737792968750000000 0.04859242960810661315917968750000 -0.06458738446235656738281250000000 -0.10622988641262054443359375000000 0.03818808868527412414550781250000 -0.02995794825255870819091796875000 -0.10990153253078460693359375000000 -0.07046312093734741210937500000000 -0.13180474936962127685546875000000 -0.13845691084861755371093750000000 -0.15522338449954986572265625000000 -0.14802800118923187255859375000000 -0.01564580388367176055908203125000 -0.03580965846776962280273437500000 -0.02933085896074771881103515625000 0.00431660236790776252746582031250 0.06739202886819839477539062500000 -0.04146635159850120544433593750000 -0.00485717877745628356933593750000 -0.06437607109546661376953125000000 -0.12093342095613479614257812500000 -0.10719443857669830322265625000000 -0.01188151445239782333374023437500 -0.00088897685054689645767211914062 -0.04366392642259597778320312500000 -0.02391801960766315460205078125000 -0.06302865594625473022460937500000 -0.04815557971596717834472656250000 -0.10927713662385940551757812500000 -0.08234272152185440063476562500000 -0.03481093049049377441406250000000 -0.03692286834120750427246093750000 0.02536977268755435943603515625000 -0.00869725830852985382080078125000 -0.10286588966846466064453125000000 -0.06262413412332534790039062500000 -0.02534938044846057891845703125000 -0.05957258492708206176757812500000 -0.11903961002826690673828125000000 -0.15045629441738128662109375000000 0.07740383595228195190429687500000 0.02616060711443424224853515625000 0.02990485914051532745361328125000 0.03570707514882087707519531250000 0.07641325891017913818359375000000 0.01281898934394121170043945312500 0.00864803418517112731933593750000 0.00895507447421550750732421875000 0.03321854397654533386230468750000 0.08893218636512756347656250000000 -0.00556775135919451713562011718750 0.02680086530745029449462890625000 -0.01122633088380098342895507812500 -0.12787719070911407470703125000000 -0.12038949877023696899414062500000 -0.14395745098590850830078125000000 -0.17485252022743225097656250000000 -0.07122058421373367309570312500000
0.01193682476878166198730468750000 0.05898226797580718994140625000000 0.06822220981121063232421875000000 0.10447989404201507568359375000000 0.16684269905090332031250000000000 0.09862399846315383911132812500000 0.06651345640420913696289062500000 0.05240577831864356994628906250000 0.02034997008740901947021484375000 -0.01693857647478580474853515625000 0.02984290756285190582275390625000 0.05991310253739356994628906250000 0.06301885843276977539062500000000 0.08880513906478881835937500000000 0.08994911611080169677734375000000 0.05173215642571449279785156250000 0.04112339392304420471191406250000 0.04326147213578224182128906250000 0.01618640497326850891113281250000 0.07854602485895156860351562500000 0.05004218965768814086914062500000 0.01243370957672595977783203125000 0.08393940329551696777343750000000 -0.01149214059114456176757812500000 -0.04135443642735481262207031250000 -0.06894747167825698852539062500000 -0.05922953784465789794921875000000 -0.08916563540697097778320312500000 -0.07317819446325302124023437500000 -0.02538200467824935913085937500000 -0.09206491708755493164062500000000 -0.00519963633269071578979492187500 -0.05963759496808052062988281250000 -0.03886061534285545349121093750000 -0.02643639408051967620849609375000 -0.09934327751398086547851562500000 0.11505096405744552612304687500000 0.07722085714340209960937500000000 0.03106692060828208923339843750000 -0.01600652374327182769775390625000 0.02675335854291915893554687500000 0.02044751308858394622802734375000 -0.00842196028679609298706054687500 -0.05201936885714530944824218750000 0.01516858581453561782836914062500 0.04372758418321609497070312500000 -0.04673526808619499206542968750000 -0.03268759697675704956054687500000 0.02377779036760330200195312500000 -0.08972221612930297851562500000000 -0.06705574691295623779296875000000 -0.09891328960657119750976562500000 -0.05986556783318519592285156250000 -0.11780522018671035766601562500000 0.08164527267217636108398437500000 0.00192356761544942855834960937500 0.03418453410267829895019531250000 -0.01765896566212177276611328125000 -0.04262832552194595336914062500000 0.05974884703755378723144531250000 0.05642666295170783996582031250000 0.00621330318972468376159667968750 -0.00767942657694220542907714843750 0.00947898719459772109985351562500 0.02119676023721694946289062500000 -0.04785412922501564025878906250000 -0.00334208365529775619506835937500 -0.15401950478553771972656250000000 -0.14037710428237915039062500000000 -0.12538962066173553466796875000000 -0.17220357060432434082031250000000 -0.21535114943981170654296875000000 0.00453963410109281539916992187500 -0.09301651269197463989257812500000 -0.09478843957185745239257812500000 -0.10053551942110061645507812500000 -0.05207015573978424072265625000000 -0.03823159262537956237792968750000 -0.10044167935848236083984375000000 -0.05400024726986885070800781250000 -0.07145636528730392456054687500000 0.04499237984418869018554687500000 0.03246336430311203002929687500000 -0.07428718358278274536132812500000 -0.12730441987514495849609375000000 -0.17593765258789062500000000000000 -0.17933171987533569335937500000000 -0.12803797423839569091796875000000 -0.12680998444557189941406250000000 -0.24177578091621398925781250000000 -0.08720884472131729125976562500000 -0.16450950503349304199218750000000 -0.11267922073602676391601562500000 -0.18297770619392395019531250000000 -0.19115364551544189453125000000000 -0.21395082771778106689453125000000 -0.21923153102397918701171875000000 -0.21054925024509429931640625000000 -0.11283385753631591796875000000000 -0.05664931610226631164550781250000 0.05919913575053215026855468750000 0.02162701264023780822753906250000 -0.07922263443470001220703125000000 -0.17276957631111145019531250000000 -0.14460203051567077636718750000000 -0.13867406547069549560546875000000 -0.18820348381996154785156250000000 -0.17060486972332000732421875000000 -0.08123867958784103393554687500000 -0.22507549822330474853515625000000 -0.21936689317226409912109375000000 -0.21257111430168151855468750000000 -0.24086724221706390380859375000000 -0.22476831078529357910156250000000 -0.19187931716442108154296875000000 -0.16007587313652038574218750000000 -0.14832159876823425292968750000000 -0.10199134051799774169921875000000 -0.05829652771353721618652343750000 -0.00854670815169811248779296875000 -0.05715024098753929138183593750000 -0.11825535446405410766601562500000 -0.14098697900772094726562500000000 -0.17058008909225463867187500000000 -0.16543193161487579345703125000000 -0.21405699849128723144531250000000 -0.19874598085880279541015625000000 -0.23271755874156951904296875000000 -0.18215566873550415039062500000000 -0.17835815250873565673828125000000 -0.14790207147598266601562500000000 -0.10210895538330078125000000000000 -0.11489635705947875976562500000000 -0.03257464244961738586425781250000 -0.12764231860637664794921875000000 -0.04942888021469116210937500000000 0.02524559386074542999267578125000 0.01399964839220046997070312500000 -0.09173624962568283081054687500000 -0.09487723559141159057617187500000 -0.10742519795894622802734375000000 -0.15968453884124755859375000000000 -0.15734642744064331054687500000000 -0.06544698029756546020507812500000 -0.17167457938194274902343750000000 -0.11874163895845413208007812500000 -0.13388787209987640380859375000000 -0.09501913189888000488281250000000 -0.07761824131011962890625000000000 -0.03472471982240676879882812500000 -0.02760778367519378662109375000000 -0.01271367818117141723632812500000 -0.01399978622794151306152343750000 0.05571607500314712524414062500000 0.00958602223545312881469726562500 0.07670576870441436767578125000000 0.00315960263833403587341308593750 -0.09834655374288558959960937500000 -0.07552734762430191040039062500000 -0.10775541514158248901367187500000 0.01494535058736801147460937500000 0.03711192682385444641113281250000 -0.09820614755153656005859375000000 -0.09596877545118331909179687500000 -0.04716173186898231506347656250000 -0.00097324629314243793487548828125 0.06936312466859817504882812500000 0.03748698532581329345703125000000 0.08281808346509933471679687500000 0.01850459538400173187255859375000 -0.01401005871593952178955078125000 0.15705643594264984130859375000000 0.12400487810373306274414062500000 0.03442737460136413574218750000000 -0.00688553741201758384704589843750 -0.00529965898022055625915527343750 0.03078410401940345764160156250000 0.08445460349321365356445312500000 0.10943420231342315673828125000000 0.09055820852518081665039062500000 0.03291388228535652160644531250000 0.01900181733071804046630859375000 0.08939537405967712402343750000000 0.06226545572280883789062500000000 0.04983757063746452331542968750000 0.07329742610454559326171875000000 0.07935520261526107788085937500000 0.03875179961323738098144531250000 0.09180040657520294189453125000000 0.12896867096424102783203125000000 0.06459408253431320190429687500000 0.01312102749943733215332031250000 0.01671224832534790039062500000000 0.05399516597390174865722656250000 0.11424083262681961059570312500000 0.16571870446205139160156250000000 0.20644822716712951660156250000000 0.14665155112743377685546875000000 0.09147482365369796752929687500000 0.10411653667688369750976562500000 0.06280455738306045532226562500000 0.01766266301274299621582031250000 0.02556516788899898529052734375000 0.08451077342033386230468750000000 0.06731339544057846069335937500000 0.02138274349272251129150390625000 0.16463130712509155273437500000000 0.20701310038566589355468750000000 0.08400736004114151000976562500000 -0.03460899740457534790039062500000 0.05442853644490242004394531250000 0.13077984750270843505859375000000 0.20516869425773620605468750000000 0.14693892002105712890625000000000 0.21486754715442657470703125000000 0.20036315917968750000000000000000 0.04129407182335853576660156250000 0.07811993360519409179687500000000 0.04011698439717292785644531250000 -0.01700788736343383789062500000000 -0.04587947949767112731933593750000 -0.02171691507101058959960937500000 0.01552840135991573333740234375000 0.01736233942210674285888671875000 0.10110660642385482788085937500000 0.09003700315952301025390625000000 0.05476408079266548156738281250000 -0.00114620465319603681564331054688 0.06696420907974243164062500000000 0.12112794071435928344726562500000 0.18423473834991455078125000000000 0.13068975508213043212890625000000 0.18003459274768829345703125000000 0.17264007031917572021484375000000 0.03015620075166225433349609375000 0.06567421555519104003906250000000 0.00943568907678127288818359375000 -0.04716841131448745727539062500000 -0.06031767651438713073730468750000 -0.02363658882677555084228515625000 -0.04296377673745155334472656250000 0.09831621497869491577148437500000 0.14896355569362640380859375000000 0.08190608769655227661132812500000 0.10120695829391479492187500000000 0.15242861211299896240234375000000 0.16389074921607971191406250000000 0.17452377080917358398437500000000 0.12370717525482177734375000000000 0.10815394669771194458007812500000 0.17660424113273620605468750000000 0.23923476040363311767578125000000 0.04295390844345092773437500000000 0.06637247651815414428710937500000 0.00952336378395557403564453125000 -0.00381567352451384067535400390625 0.01192240323871374130249023437500 0.05488614737987518310546875000000 0.15784539282321929931640625000000 0.21201331913471221923828125000000 0.25664165616035461425781250000000 0.17850591242313385009765625000000 0.17711156606674194335937500000000 0.20292383432388305664062500000000 0.14897656440734863281250000000000 0.11218378692865371704101562500000 0.08887612074613571166992187500000 0.11662053316831588745117187500000 0.14811168611049652099609375000000 0.11522111296653747558593750000000 0.05706517770886421203613281250000 0.00908157601952552795410156250000 0.11227706074714660644531250000000 0.10115167498588562011718750000000 0.14952647686004638671875000000000 0.12447174638509750366210937500000 0.18985794484615325927734375000000 0.20620451867580413818359375000000 0.21603354811668395996093750000000 0.25705337524414062500000000000000 0.19069229066371917724609375000000 0.20624010264873504638671875000000 0.17256052792072296142578125000000 0.16494508087635040283203125000000 0.10116147249937057495117187500000 0.13925288617610931396484375000000 0.06383189558982849121093750000000 -0.00763818202540278434753417968750 0.07596968114376068115234375000000 0.03034219332039356231689453125000 0.04402631148695945739746093750000 0.08019961416721343994140625000000 0.09104940295219421386718750000000 0.19909130036830902099609375000000 0.12087428569793701171875000000000 0.22578869760036468505859375000000 0.18738384544849395751953125000000 0.26434713602066040039062500000000 0.21725600957870483398437500000000 0.16678248345851898193359375000000 0.22547003626823425292968750000000 0.12377876043319702148437500000000 0.12874011695384979248046875000000 0.07579976320266723632812500000000 0.01573680527508258819580078125000 0.01506674103438854217529296875000 0.08966062963008880615234375000000 0.01937094703316688537597656250000 0.05353950336575508117675781250000 0.06093158945441246032714843750000 0.05066693946719169616699218750000 0.03521675989031791687011718750000 -0.04493660479784011840820312500000 -0.05968069657683372497558593750000 -0.05547444149851799011230468750000 -0.08216410875320434570312500000000 -0.00625293608754873275756835937500 -0.04585630446672439575195312500000 -0.03128987550735473632812500000000 0.00742941116914153099060058593750 -0.04440567269921302795410156250000 -0.06229669973254203796386718750000 0.00188628642354160547256469726562 -0.03474636375904083251953125000000
-0.03241345286369323730468750000000 0.03767233714461326599121093750000 0.02847674116492271423339843750000 -0.01728236488997936248779296875000 0.00484984181821346282958984375000 -0.02511401660740375518798828125000 -0.00477703521028161048889160156250 -0.01268132217228412628173828125000 -0.04612527787685394287109375000000 -0.03932019695639610290527343750000 -0.00585021823644638061523437500000 -0.02913189679384231567382812500000 -0.02776928432285785675048828125000 -0.02466685883700847625732421875000 -0.00809227209538221359252929687500 0.02465958520770072937011718750000 -0.02836164087057113647460937500000 0.02854773774743080139160156250000 0.00660603772848844528198242187500 0.01656067185103893280029296875000 -0.00065381929744035005569458007812 -0.05767511576414108276367187500000 -0.03804114460945129394531250000000 0.02962974272668361663818359375000 0.00059203221462666988372802734375 -0.02647692151367664337158203125000 -0.03195568174123764038085937500000 -0.03164249286055564880371093750000 -0.03585778176784515380859375000000 -0.04410034418106079101562500000000 -0.00826981849968433380126953125000 0.03338285535573959350585937500000 0.01493506133556365966796875000000 0.01013116817921400070190429687500 0.02898051589727401733398437500000 -0.04889949411153793334960937500000 0.03125239163637161254882812500000 0.05207874253392219543457031250000 0.01349554397165775299072265625000 -0.01062719896435737609863281250000 0.04317111521959304809570312500000 -0.05849893018603324890136718750000 -0.01685105636715888977050781250000 -0.00824554730206727981567382812500 0.00255468231625854969024658203125 -0.03564472123980522155761718750000 -0.00571769336238503456115722656250 -0.02835249714553356170654296875000 0.00385321141220629215240478515625 0.01229009404778480529785156250000 -0.01868727430701255798339843750000 -0.04548147320747375488281250000000 -0.03207757323980331420898437500000 -0.01619038730859756469726562500000 0.00411489931866526603698730468750 0.01349248271435499191284179687500 -0.00738182151690125465393066406250 -0.00928057543933391571044921875000 -0.04528275132179260253906250000000 0.04621293023228645324707031250000 -0.01900501549243927001953125000000 0.01594864018261432647705078125000 -0.02005489543080329895019531250000 -0.00443569198250770568847656250000 -0.00649540266022086143493652343750 -0.01005171239376068115234375000000 -0.04750291258096694946289062500000 -0.03552382439374923706054687500000 -0.03085252270102500915527343750000 0.02269938215613365173339843750000 0.02426855824887752532958984375000 0.00397803168743848800659179687500 0.00165311095770448446273803710938 -0.04305801168084144592285156250000 -0.01025329902768135070800781250000 0.02744973264634609222412109375000 -0.01013933587819337844848632812500 0.03040824830532073974609375000000 0.01984705775976181030273437500000 -0.02147861383855342864990234375000 -0.00464168610051274299621582031250 -0.03897480666637420654296875000000 0.00754768773913383483886718750000 -0.01452137995511293411254882812500 -0.00767606776207685470581054687500 -0.05188431218266487121582031250000 0.03572821244597434997558593750000 0.04349909350275993347167968750000 -0.04963954165577888488769531250000 -0.03395528346300125122070312500000 0.04250766709446907043457031250000 -0.00867226533591747283935546875000 0.02614754997193813323974609375000 0.03243373706936836242675781250000 -0.03481859341263771057128906250000 -0.01306076068431138992309570312500 -0.02502692677080631256103515625000 -0.04589205235242843627929687500000 -0.04666417837142944335937500000000 0.01664204709231853485107421875000 -0.03752501308917999267578125000000 0.03169768676161766052246093750000 -0.04287615418434143066406250000000 0.02974310703575611114501953125000 0.03239496052265167236328125000000 0.00109511206392198801040649414062 -0.03979097679257392883300781250000 0.00573819596320390701293945312500 -0.00819206330925226211547851562500 0.02402445115149021148681640625000 0.00043177357292734086513519287109 -0.01793740503489971160888671875000 -0.02613043412566184997558593750000 0.02810239046812057495117187500000 -0.05781625211238861083984375000000 0.03081215173006057739257812500000 -0.04692073166370391845703125000000 0.03941527381539344787597656250000 0.02955268695950508117675781250000 -0.04613228142261505126953125000000 0.01426930539309978485107421875000 -0.04576768353581428527832031250000 -0.01993241533637046813964843750000 -0.01240891218185424804687500000000 -0.01230099238455295562744140625000 0.04040392860770225524902343750000 0.03938694670796394348144531250000 -0.03943498432636260986328125000000 -0.00359746930189430713653564453125 -0.02593208290636539459228515625000 -0.04954031109809875488281250000000 0.03956125676631927490234375000000 0.02557993307709693908691406250000 -0.01311664190143346786499023437500 -0.01780022121965885162353515625000 -0.01195726729929447174072265625000 0.01200992520898580551147460937500 0.03744719922542572021484375000000 0.02018679119646549224853515625000 -0.03231870755553245544433593750000 -0.03837660700082778930664062500000 -0.05390552431344985961914062500000 -0.01527923252433538436889648437500 -0.05270924419164657592773437500000 0.04437287896871566772460937500000 -0.03249696269631385803222656250000 -0.00980480946600437164306640625000 0.03381796926259994506835937500000 0.00606744596734642982482910156250 -0.06109821796417236328125000000000 -0.00710170716047286987304687500000 0.02706360630691051483154296875000 0.01261972356587648391723632812500 0.04823507368564605712890625000000 -0.03406935930252075195312500000000 0.03935232013463973999023437500000 -0.00760255055502057075500488281250 0.03071081824600696563720703125000 -0.02991562709212303161621093750000 -0.00666751479730010032653808593750 0.01428951788693666458129882812500 0.00069821486249566078186035156250 0.00727899605408310890197753906250 0.02663420327007770538330078125000 -0.01005258318036794662475585937500 0.02147179283201694488525390625000 0.01097715366631746292114257812500 -0.03514692559838294982910156250000 -0.03404501825571060180664062500000 -0.03543647378683090209960937500000 0.01532878074795007705688476562500 -0.01969014480710029602050781250000 -0.02018521353602409362792968750000 0.01580115407705307006835937500000 0.00748352054506540298461914062500 0.00875151436775922775268554687500 -0.04653093591332435607910156250000 -0.00150244380347430706024169921875 -0.03816952183842658996582031250000 -0.03387316316366195678710937500000 -0.04519579559564590454101562500000 0.02820881642401218414306640625000 0.01965835690498352050781250000000 0.02974693290889263153076171875000 -0.05836166441440582275390625000000 0.03112462721765041351318359375000 -0.03325024619698524475097656250000 -0.05432692915201187133789062500000 -0.02752995677292346954345703125000 -0.02112131938338279724121093750000 0.01186618395149707794189453125000 -0.02320610359311103820800781250000 0.02293872088193893432617187500000 -0.04696116596460342407226562500000 0.00916693918406963348388671875000 0.04909616708755493164062500000000 0.00164780439808964729309082031250 0.03267962113022804260253906250000 -0.03326900675892829895019531250000 -0.02500339597463607788085937500000 0.02443993277847766876220703125000 -0.02327580563724040985107421875000 0.02200949564576148986816406250000 0.00572905875742435455322265625000 -0.00896496139466762542724609375000 0.03697881102561950683593750000000 -0.04724753275513648986816406250000 0.04137500748038291931152343750000 0.04172008484601974487304687500000 -0.01292658038437366485595703125000 0.01100177038460969924926757812500 0.01220117881894111633300781250000 0.00988915655761957168579101562500 0.04584925249218940734863281250000 0.01018324866890907287597656250000 -0.03727718070149421691894531250000 -0.01647443696856498718261718750000 0.03231966122984886169433593750000 0.01999236643314361572265625000000 -0.04840383678674697875976562500000 -0.04906864091753959655761718750000 -0.04715747013688087463378906250000 0.00953195337206125259399414062500 0.04650191217660903930664062500000 0.00153608992695808410644531250000 -0.01365237217396497726440429687500 -0.02547148987650871276855468750000 -0.01417837850749492645263671875000 -0.05108757317066192626953125000000 -0.01849186606705188751220703125000 -0.03811958432197570800781250000000 -0.01250852178782224655151367187500 -0.04992248490452766418457031250000 0.03618462011218070983886718750000 0.01896046102046966552734375000000 -0.01880376785993576049804687500000 -0.03284637629985809326171875000000 -0.00347274448722600936889648437500 -0.03667459264397621154785156250000 0.02270084992051124572753906250000 -0.02167662046849727630615234375000 -0.01247865520417690277099609375000 0.01005208026617765426635742187500 -0.00921257585287094116210937500000 -0.05705769732594490051269531250000 -0.01272231806069612503051757812500 -0.05675956234335899353027343750000 -0.01132973190397024154663085937500 0.02459791488945484161376953125000 0.00011983168224105611443519592285 -0.03305943310260772705078125000000 -0.02423606440424919128417968750000 0.00075118290260434150695800781250 -0.01523880288004875183105468750000 0.04316816851496696472167968750000 -0.03513856232166290283203125000000 -0.03105875663459300994873046875000 0.00464132335036993026733398437500 -0.00991029944270849227905273437500 0.00224057701416313648223876953125 -0.05317356809973716735839843750000 -0.02856030501425266265869140625000 0.01551442127674818038940429687500 0.00478463899344205856323242187500 -0.04893850907683372497558593750000 0.04771918803453445434570312500000 -0.02001173608005046844482421875000 0.00234478921629488468170166015625 0.04352376982569694519042968750000 -0.00365917803719639778137207031250 -0.02049277722835540771484375000000 0.04113287851214408874511718750000 0.05165767669677734375000000000000 -0.01543251145631074905395507812500 0.02777965553104877471923828125000 0.02314815670251846313476562500000 0.02191734872758388519287109375000 -0.03566915541887283325195312500000 -0.00536701595410704612731933593750 0.03968497738242149353027343750000 0.02932631969451904296875000000000 -0.03955009579658508300781250000000 -0.05174789577722549438476562500000 0.03883314877748489379882812500000 -0.05651225894689559936523437500000 0.03554051369428634643554687500000 0.03322470188140869140625000000000 -0.01865198276937007904052734375000 -0.02433757483959197998046875000000 0.03467880561947822570800781250000 -0.01561423577368259429931640625000 -0.03039302676916122436523437500000 -0.00153577374294400215148925781250 0.03787881135940551757812500000000 -0.05310068279504776000976562500000 -0.05311841145157814025878906250000 -0.00860022287815809249877929687500 -0.05328125506639480590820312500000 0.02130399085581302642822265625000 0.02017989940941333770751953125000 -0.00411844858899712562561035156250 -0.04198165610432624816894531250000 -0.05234467983245849609375000000000 0.00060940638650208711624145507812 -0.03375681489706039428710937500000 0.04319344833493232727050781250000 0.02338236570358276367187500000000 0.03313225880265235900878906250000 0.01945186220109462738037109375000 0.00324233621358871459960937500000 -0.04213639348745346069335937500000 -0.03099952079355716705322265625000 -0.01482266560196876525878906250000 -0.05460853502154350280761718750000 -0.04481700435280799865722656250000 0.02182792872190475463867187500000 0.03214470297098159790039062500000 -0.00899065844714641571044921875000 -0.01569687388837337493896484375000 0.04684773832559585571289062500000 0.02538075856864452362060546875000 -0.01707576587796211242675781250000 0.00099355843849480152130126953125 -0.05547033622860908508300781250000
-0.06701610237360000610351562500000 -0.10855898261070251464843750000000 -0.03074279986321926116943359375000 -0.14688232541084289550781250000000 -0.12285979092121124267578125000000 -0.10885615646839141845703125000000 -0.07503563910722732543945312500000 -0.01646136306226253509521484375000 0.01630473695695400238037109375000 0.05968780815601348876953125000000 0.09049267321825027465820312500000 0.04968834668397903442382812500000 0.06729704141616821289062500000000 0.07110569626092910766601562500000 0.10561330616474151611328125000000 0.12472415715456008911132812500000 0.20564430952072143554687500000000 0.20500890910625457763671875000000 -0.07834293693304061889648437500000 -0.10331172496080398559570312500000 -0.07620090991258621215820312500000 -0.07572605460882186889648437500000 -0.00409143231809139251708984375000 -0.03806053474545478820800781250000 0.01312997005879878997802734375000 0.00829630810767412185668945312500 -0.03008710592985153198242187500000 -0.01664813421666622161865234375000 -0.03687836974859237670898437500000 -0.04228391870856285095214843750000 -0.02562831155955791473388671875000 -0.06796067953109741210937500000000 0.04572365432977676391601562500000 0.04304718598723411560058593750000 0.07690650969743728637695312500000 0.17655289173126220703125000000000 -0.06839038431644439697265625000000 -0.11202415823936462402343750000000 -0.07181119173765182495117187500000 0.01683207787573337554931640625000 0.01116351317614316940307617187500 0.00879990402609109878540039062500 -0.03808971494436264038085937500000 -0.08782172203063964843750000000000 -0.10879307985305786132812500000000 -0.10687161982059478759765625000000 -0.09675626456737518310546875000000 -0.11491936445236206054687500000000 -0.09058052301406860351562500000000 -0.04539250954985618591308593750000 -0.01467021740972995758056640625000 0.01187303848564624786376953125000 0.03269164636731147766113281250000 0.06946426630020141601562500000000 -0.09566781669855117797851562500000 -0.03950198739767074584960937500000 0.07440637797117233276367187500000 0.00234461505897343158721923828125 0.01380660757422447204589843750000 -0.07538077235221862792968750000000 -0.03749053925275802612304687500000 -0.03986941277980804443359375000000 -0.05797306820750236511230468750000 -0.12594430148601531982421875000000 -0.11835797876119613647460937500000 -0.10576876252889633178710937500000 -0.09580288827419281005859375000000 0.00334213301539421081542968750000 -0.04861582070589065551757812500000 -0.01185693778097629547119140625000 0.02060855925083160400390625000000 0.06497315317392349243164062500000 -0.07552959024906158447265625000000 -0.02803730405867099761962890625000 0.05531995370984077453613281250000 0.09024386852979660034179687500000 0.11461348831653594970703125000000 0.03853460028767585754394531250000 0.06822723895311355590820312500000 0.05520746111869812011718750000000 -0.04037057608366012573242187500000 -0.08425990492105484008789062500000 -0.10623414814472198486328125000000 -0.10989218950271606445312500000000 -0.11130098253488540649414062500000 -0.12015938758850097656250000000000 -0.08222307264804840087890625000000 -0.10086464136838912963867187500000 -0.03831433132290840148925781250000 -0.02104821801185607910156250000000 -0.08296655863523483276367187500000 0.03674774989485740661621093750000 0.10728319734334945678710937500000 0.18817107379436492919921875000000 0.18085311353206634521484375000000 0.12836000323295593261718750000000 0.23227888345718383789062500000000 0.14346031844615936279296875000000 0.10489512979984283447265625000000 0.04186877235770225524902343750000 0.02933094650506973266601562500000 -0.06561496853828430175781250000000 -0.13486105203628540039062500000000 -0.15875387191772460937500000000000 -0.18917930126190185546875000000000 -0.08670862019062042236328125000000 -0.05183409526944160461425781250000 -0.07443495839834213256835937500000 0.05024168267846107482910156250000 0.08317856490612030029296875000000 0.13673426210880279541015625000000 0.21935957670211791992187500000000 0.24780009686946868896484375000000 0.18149875104427337646484375000000 0.13187690079212188720703125000000 0.19484578073024749755859375000000 0.17288203537464141845703125000000 0.25239670276641845703125000000000 0.17576508224010467529296875000000 0.06738778203725814819335937500000 -0.08157431334257125854492187500000 -0.11330444365739822387695312500000 -0.16438691318035125732421875000000 -0.15382432937622070312500000000000 -0.03702934831380844116210937500000 -0.10745500028133392333984375000000 0.01658303290605545043945312500000 0.07517301291227340698242187500000 0.21156071126461029052734375000000 0.18197432160377502441406250000000 0.14287920296192169189453125000000 0.15283717215061187744140625000000 0.14011591672897338867187500000000 0.19362738728523254394531250000000 0.30551642179489135742187500000000 0.37151750922203063964843750000000 0.27221441268920898437500000000000 0.07943005859851837158203125000000 -0.00890353508293628692626953125000 -0.06740339100360870361328125000000 -0.07152806222438812255859375000000 -0.04587971791625022888183593750000 -0.02235295996069908142089843750000 -0.08564416319131851196289062500000 0.03420233353972434997558593750000 0.06456763297319412231445312500000 0.08619000017642974853515625000000 0.15580028295516967773437500000000 0.09101051092147827148437500000000 0.03017966449260711669921875000000 0.06817942112684249877929687500000 0.22709004580974578857421875000000 0.20355603098869323730468750000000 0.35843411087989807128906250000000 0.32720032334327697753906250000000 0.10335735976696014404296875000000 0.00022006419021636247634887695312 -0.00512686138972640037536621093750 -0.00773690594360232353210449218750 0.00144115323200821876525878906250 -0.05013149604201316833496093750000 -0.05289451405405998229980468750000 -0.03454373404383659362792968750000 -0.00864991080015897750854492187500 -0.00315869366750121116638183593750 0.02033458463847637176513671875000 0.02909404225647449493408203125000 0.01626274175941944122314453125000 0.04197447374463081359863281250000 0.11251283437013626098632812500000 0.27659296989440917968750000000000 0.38329675793647766113281250000000 0.27447766065597534179687500000000 0.17439407110214233398437500000000 -0.00485968077555298805236816406250 -0.08318650722503662109375000000000 -0.03447703272104263305664062500000 -0.02313569374382495880126953125000 -0.10002947598695755004882812500000 -0.09450629353523254394531250000000 -0.11575262248516082763671875000000 -0.08239274471998214721679687500000 -0.07895945012569427490234375000000 -0.08227343857288360595703125000000 -0.04322703182697296142578125000000 -0.03246619924902915954589843750000 0.03418925032019615173339843750000 0.13930933177471160888671875000000 0.31035766005516052246093750000000 0.42515966296195983886718750000000 0.24419160187244415283203125000000 0.06753721088171005249023437500000 -0.05409541353583335876464843750000 -0.07717298716306686401367187500000 -0.08504317700862884521484375000000 -0.12977451086044311523437500000000 -0.09656573832035064697265625000000 -0.14967980980873107910156250000000 -0.18765780329704284667968750000000 -0.21878413856029510498046875000000 -0.16176477074623107910156250000000 -0.15839986503124237060546875000000 -0.05589111894369125366210937500000 -0.03649687767028808593750000000000 0.03314288705587387084960937500000 0.11063654720783233642578125000000 0.24770808219909667968750000000000 0.28875309228897094726562500000000 0.15816682577133178710937500000000 -0.03509896993637084960937500000000 -0.16484223306179046630859375000000 -0.15061941742897033691406250000000 -0.10452914237976074218750000000000 -0.14449742436408996582031250000000 -0.14665363729000091552734375000000 -0.14101560413837432861328125000000 -0.15148769319057464599609375000000 -0.12709794938564300537109375000000 -0.14015950262546539306640625000000 -0.12792210280895233154296875000000 -0.01998092606663703918457031250000 -0.03298063948750495910644531250000 0.01795855909585952758789062500000 0.14185091853141784667968750000000 0.18821108341217041015625000000000 0.23721675574779510498046875000000 -0.03593503311276435852050781250000 -0.06908778101205825805664062500000 -0.13792915642261505126953125000000 -0.11308288574218750000000000000000 -0.14612397551536560058593750000000 -0.10641936212778091430664062500000 -0.10530488938093185424804687500000 -0.14477178454399108886718750000000 -0.11470133066177368164062500000000 -0.10318928211927413940429687500000 -0.09897281974554061889648437500000 -0.01261421013623476028442382812500 0.00047732962411828339099884033203 0.00160587427671998739242553710938 0.00113836326636373996734619140625 0.12140917778015136718750000000000 0.14685200154781341552734375000000 0.12778773903846740722656250000000 -0.01464806869626045227050781250000 -0.05593281984329223632812500000000 -0.10003288835287094116210937500000 -0.04638128727674484252929687500000 -0.06995706260204315185546875000000 -0.01003432925790548324584960937500 -0.10074121505022048950195312500000 -0.06890232861042022705078125000000 -0.12396099418401718139648437500000 -0.07241882383823394775390625000000 -0.05124714225530624389648437500000 -0.03684020042419433593750000000000 -0.01921074092388153076171875000000 -0.02552027814090251922607421875000 0.06665077060461044311523437500000 0.01181244105100631713867187500000 0.08156720548868179321289062500000 0.05668573826551437377929687500000 0.04029960930347442626953125000000 0.04321872815489768981933593750000 -0.01628794707357883453369140625000 -0.03989362716674804687500000000000 0.01128932740539312362670898437500 -0.01080226898193359375000000000000 -0.05796171724796295166015625000000 -0.07979753613471984863281250000000 -0.13499265909194946289062500000000 -0.00214898632839322090148925781250 0.06994930654764175415039062500000 0.04894816875457763671875000000000 0.00996181741356849670410156250000 0.07225487381219863891601562500000 0.03544536978006362915039062500000 0.07653000950813293457031250000000 0.08818883448839187622070312500000 0.06313563138246536254882812500000 0.08768819272518157958984375000000 0.09546554833650588989257812500000 0.08434589207172393798828125000000 0.05583832785487174987792968750000 -0.02326938882470130920410156250000 -0.05460819602012634277343750000000 -0.06264807283878326416015625000000 -0.04130037873983383178710937500000 -0.10412938892841339111328125000000 0.01458938885480165481567382812500 0.03924478963017463684082031250000 0.09849478304386138916015625000000 0.08506323397159576416015625000000 0.06255932152271270751953125000000 0.02353582531213760375976562500000 0.06310801208019256591796875000000 0.08345415443181991577148437500000 0.09609140455722808837890625000000 0.13972751796245574951171875000000 0.07263797521591186523437500000000 0.07081194967031478881835937500000 0.02720613591372966766357421875000 0.02917733043432235717773437500000 -0.00225264369510114192962646484375 -0.00011260456813033670186996459961 -0.03372791782021522521972656250000 -0.00030772248283028602600097656250 -0.06538144499063491821289062500000 0.01442408654838800430297851562500 0.00873852986842393875122070312500 -0.03315344825387001037597656250000 0.08841408044099807739257812500000 0.06363210082054138183593750000000 0.10284760594367980957031250000000 0.08533342182636260986328125000000 0.21061258018016815185546875000000 0.15684878826141357421875000000000 0.17053727805614471435546875000000 0.19290141761302947998046875000000 0.17266903817653656005859375000000 0.03161530569195747375488281250000 -0.01492369920015335083007812500000 0.02462910301983356475830078125000 -0.03570700436830520629882812500000
-0.01736225001513957977294921875000 -0.00139557791408151388168334960938 0.02703898027539253234863281250000 0.01729472354054450988769531250000 -0.01556949596852064132690429687500 -0.09384883940219879150390625000000 -0.04457296431064605712890625000000 -0.01909777335822582244873046875000 -0.07235863059759140014648437500000 -0.05478350818157196044921875000000 -0.02412107586860656738281250000000 0.00954322889447212219238281250000 -0.06032633408904075622558593750000 0.00055700889788568019866943359375 -0.01938743330538272857666015625000 -0.07439336180686950683593750000000 -0.03509347513318061828613281250000 0.02559698745608329772949218750000 0.01082832366228103637695312500000 0.03924564272165298461914062500000 0.01513232197612524032592773437500 -0.00268426863476634025573730468750 0.06192902475595474243164062500000 0.10464379191398620605468750000000 0.03067634813487529754638671875000 -0.01535004656761884689331054687500 -0.00327035319060087203979492187500 -0.01395201403647661209106445312500 0.00860555935651063919067382812500 0.04528011754155158996582031250000 0.04218001663684844970703125000000 -0.06153855845332145690917968750000 -0.01063126139342784881591796875000 0.03788681328296661376953125000000 0.03265868127346038818359375000000 -0.00935830827802419662475585937500 0.00597374187782406806945800781250 0.04899146035313606262207031250000 0.06496529281139373779296875000000 0.07274763286113739013671875000000 0.12537911534309387207031250000000 0.10425291955471038818359375000000 0.15059190988540649414062500000000 0.03061592020094394683837890625000 0.09760005772113800048828125000000 -0.03325332701206207275390625000000 0.05091431364417076110839843750000 0.04804074019193649291992187500000 0.05267746001482009887695312500000 0.05165520310401916503906250000000 0.05339282378554344177246093750000 0.10845834761857986450195312500000 0.12912982702255249023437500000000 0.01930281892418861389160156250000 0.08149844408035278320312500000000 0.12261202931404113769531250000000 0.11591549962759017944335937500000 0.18540839850902557373046875000000 0.15275014936923980712890625000000 0.19026048481464385986328125000000 0.19996927678585052490234375000000 0.12182482331991195678710937500000 0.11952830106019973754882812500000 0.01369703095406293869018554687500 0.00990887451916933059692382812500 0.10030931979417800903320312500000 0.10030784457921981811523437500000 0.15082079172134399414062500000000 0.14072267711162567138671875000000 0.10423961281776428222656250000000 0.11830408871173858642578125000000 0.07546407729387283325195312500000 0.13245011866092681884765625000000 0.14639949798583984375000000000000 0.07893243432044982910156250000000 0.07165377587080001831054687500000 0.18258242309093475341796875000000 0.10487608611583709716796875000000 0.15007753670215606689453125000000 0.16122731566429138183593750000000 0.08877302706241607666015625000000 0.01300682593137025833129882812500 0.08189651370048522949218750000000 0.10956414788961410522460937500000 0.20111992955207824707031250000000 0.17473278939723968505859375000000 0.13986590504646301269531250000000 0.11959844827651977539062500000000 0.07854869216680526733398437500000 0.02691313624382019042968750000000 0.06946983933448791503906250000000 0.04883506521582603454589843750000 0.04355854168534278869628906250000 0.07588453590869903564453125000000 0.11314482986927032470703125000000 0.14950816333293914794921875000000 0.08040745556354522705078125000000 0.11926827579736709594726562500000 -0.03666972368955612182617187500000 -0.05943100154399871826171875000000 0.02981638722121715545654296875000 0.19061888754367828369140625000000 0.16915558278560638427734375000000 0.16213448345661163330078125000000 0.15402819216251373291015625000000 0.12252689152956008911132812500000 0.08731755614280700683593750000000 0.04450013488531112670898437500000 0.07688527554273605346679687500000 0.00363511918112635612487792968750 0.02699280343949794769287109375000 0.07410363107919692993164062500000 0.05856752768158912658691406250000 0.09316888451576232910156250000000 0.05433546379208564758300781250000 0.02354522608220577239990234375000 -0.13689403235912322998046875000000 -0.06806348264217376708984375000000 0.04196470975875854492187500000000 0.17116995155811309814453125000000 0.13015116751194000244140625000000 0.14817756414413452148437500000000 0.09685000777244567871093750000000 0.12092712521553039550781250000000 0.11211621761322021484375000000000 -0.00352289876900613307952880859375 0.04759714379906654357910156250000 -0.08100970834493637084960937500000 -0.01293556112796068191528320312500 0.07322724908590316772460937500000 0.00722091505303978919982910156250 -0.03225884214043617248535156250000 -0.00369407655671238899230957031250 -0.11019270867109298706054687500000 -0.23178891837596893310546875000000 -0.16664303839206695556640625000000 0.05818077921867370605468750000000 0.13664892315864562988281250000000 0.07647497951984405517578125000000 0.09248469024896621704101562500000 0.06040775030851364135742187500000 0.12484845519065856933593750000000 0.02735942974686622619628906250000 -0.04298716783523559570312500000000 -0.02426760271191596984863281250000 -0.09586250782012939453125000000000 -0.08225166797637939453125000000000 0.01739513874053955078125000000000 -0.00814458262175321578979492187500 0.03815888240933418273925781250000 -0.08871161192655563354492187500000 -0.22018900513648986816406250000000 -0.24423260986804962158203125000000 -0.12336372584104537963867187500000 0.03197021782398223876953125000000 0.12818554043769836425781250000000 0.10930978506803512573242187500000 0.09920965880155563354492187500000 0.08323187381029129028320312500000 0.11574960500001907348632812500000 0.01810235902667045593261718750000 -0.08704183250665664672851562500000 -0.00929883588105440139770507812500 -0.02817212603986263275146484375000 0.01472807861864566802978515625000 -0.00172843143809586763381958007812 -0.05453076213598251342773437500000 -0.04760036990046501159667968750000 -0.11436903476715087890625000000000 -0.18313118815422058105468750000000 -0.14703418314456939697265625000000 0.01756718941032886505126953125000 0.08195127546787261962890625000000 0.14640922844409942626953125000000 0.15775559842586517333984375000000 0.16083975136280059814453125000000 0.16335037350654602050781250000000 0.17031495273113250732421875000000 0.02715564146637916564941406250000 -0.03825277090072631835937500000000 0.00876714289188385009765625000000 -0.01284723635762929916381835937500 0.05962073802947998046875000000000 0.06048775836825370788574218750000 -0.04215377196669578552246093750000 -0.09188348799943923950195312500000 -0.13838635385036468505859375000000 -0.09585243463516235351562500000000 0.00148351443931460380554199218750 0.06653202325105667114257812500000 0.20919398963451385498046875000000 0.15162515640258789062500000000000 0.27507466077804565429687500000000 0.21658220887184143066406250000000 0.16124677658081054687500000000000 0.05993549898266792297363281250000 0.05210007727146148681640625000000 -0.06048463284969329833984375000000 0.01904388889670372009277343750000 0.00706547033041715621948242187500 0.09915827214717864990234375000000 0.02439825609326362609863281250000 -0.03501805663108825683593750000000 -0.08983385562896728515625000000000 -0.09812035411596298217773437500000 0.02683220058679580688476562500000 0.14052046835422515869140625000000 0.11100903898477554321289062500000 0.23733200132846832275390625000000 0.23148992657661437988281250000000 0.24322883784770965576171875000000 0.16456827521324157714843750000000 0.09193406254053115844726562500000 0.03509055450558662414550781250000 -0.01421515364199876785278320312500 -0.03356532752513885498046875000000 0.06135853379964828491210937500000 0.00473657948896288871765136718750 0.00551712140440940856933593750000 0.02042995020747184753417968750000 -0.00324963754974305629730224609375 -0.09302031993865966796875000000000 -0.05423788353800773620605468750000 0.12678824365139007568359375000000 0.28747096657752990722656250000000 0.24481427669525146484375000000000 0.19063293933868408203125000000000 0.18675747513771057128906250000000 0.10947088152170181274414062500000 0.04051844403147697448730468750000 -0.02126322314143180847167968750000 -0.03062379918992519378662109375000 -0.00128376239445060491561889648438 -0.00549461925402283668518066406250 -0.02378720045089721679687500000000 -0.05598593130707740783691406250000 -0.05113864690065383911132812500000 -0.07198376953601837158203125000000 -0.15508772432804107666015625000000 -0.10441350936889648437500000000000 -0.00360487936995923519134521484375 0.05101954564452171325683593750000 0.23594164848327636718750000000000 0.23624962568283081054687500000000 0.10109289735555648803710937500000 0.00349044031463563442230224609375 0.00252685369923710823059082031250 -0.09763880074024200439453125000000 -0.07705913484096527099609375000000 -0.03243702277541160583496093750000 -0.07322086393833160400390625000000 -0.07265177369117736816406250000000 -0.06424518674612045288085937500000 -0.04286554828286170959472656250000 -0.08381746709346771240234375000000 -0.10039643943309783935546875000000 -0.21094851195812225341796875000000 -0.13597065210342407226562500000000 -0.06127398088574409484863281250000 -0.02336861938238143920898437500000 0.04384228214621543884277343750000 0.03671094030141830444335937500000 -0.04062739014625549316406250000000 -0.11401873826980590820312500000000 -0.09640999138355255126953125000000 -0.12759122252464294433593750000000 -0.10009460896253585815429687500000 -0.16289409995079040527343750000000 -0.15725286304950714111328125000000 -0.00765749486163258552551269531250 -0.02048393525183200836181640625000 -0.04840307682752609252929687500000 -0.12359710782766342163085937500000 -0.15862308442592620849609375000000 -0.13547192513942718505859375000000 -0.17709758877754211425781250000000 -0.07750461250543594360351562500000 -0.03699054941534996032714843750000 -0.06000612303614616394042968750000 -0.03248167410492897033691406250000 -0.05581757053732872009277343750000 -0.05180418491363525390625000000000 -0.11520946770906448364257812500000 -0.13382840156555175781250000000000 -0.12180289626121520996093750000000 -0.13141274452209472656250000000000 -0.04866994544863700866699218750000 0.06396660953760147094726562500000 -0.10013966262340545654296875000000 -0.09770040214061737060546875000000 -0.07281846553087234497070312500000 -0.09623715281486511230468750000000 -0.00461212964728474617004394531250 -0.07548688352108001708984375000000 -0.06819770485162734985351562500000 -0.03032537549734115600585937500000 -0.08485535532236099243164062500000 -0.03937385231256484985351562500000 -0.07096364349126815795898437500000 -0.04810793325304985046386718750000 -0.08549942076206207275390625000000 -0.10337941348552703857421875000000 -0.02060331031680107116699218750000 0.02739226445555686950683593750000 0.03532768413424491882324218750000 -0.00484156142920255661010742187500 0.00527309300377964973449707031250 -0.04864054173231124877929687500000 -0.09755907952785491943359375000000 0.00444624572992324829101562500000 -0.05268203467130661010742187500000 -0.00304253981448709964752197265625 -0.02222840301692485809326171875000 0.00372342951595783233642578125000 -0.02758315391838550567626953125000 0.02312831766903400421142578125000 0.00292723067104816436767578125000 -0.02887983247637748718261718750000 0.01625280641019344329833984375000 -0.05221429467201232910156250000000 0.01468414440751075744628906250000 -0.01346888300031423568725585937500 0.01072697807103395462036132812500 0.06525557488203048706054687500000
-0.00421303464099764823913574218750 -0.03077660128474235534667968750000 -0.07257480919361114501953125000000 -0.05942942574620246887207031250000 -0.07521390169858932495117187500000 -0.02995194867253303527832031250000 -0.00067109201336279511451721191406 0.00663420651108026504516601562500 -0.00409210985526442527770996093750 0.02590399794280529022216796875000 0.03363870829343795776367187500000 -0.00600171322003006935119628906250 0.05920411646366119384765625000000 0.05980807170271873474121093750000 0.05831772461533546447753906250000 0.01720211654901504516601562500000 -0.00511943642050027847290039062500 -0.00253101345151662826538085937500 0.01453024987131357192993164062500 -0.00981795601546764373779296875000 0.01727930083870887756347656250000 -0.04531876370310783386230468750000 0.05275174602866172790527343750000 -0.00155827437993139028549194335938 0.03976527228951454162597656250000 0.12721747159957885742187500000000 0.07873461395502090454101562500000 0.11551713198423385620117187500000 0.13873577117919921875000000000000 0.16990597546100616455078125000000 0.12923225760459899902343750000000 0.00978616811335086822509765625000 0.04052088409662246704101562500000 -0.07628764957189559936523437500000 -0.10159385949373245239257812500000 -0.07675258815288543701171875000000 -0.07466425001621246337890625000000 -0.03273060917854309082031250000000 0.01317193172872066497802734375000 -0.00653198221698403358459472656250 0.03132799267768859863281250000000 0.01278844103217124938964843750000 0.10226452350616455078125000000000 0.05787527188658714294433593750000 0.16470594704151153564453125000000 0.24092282354831695556640625000000 0.26425758004188537597656250000000 0.19710355997085571289062500000000 0.13839498162269592285156250000000 0.08174810558557510375976562500000 -0.00550648849457502365112304687500 -0.01195074617862701416015625000000 -0.01548027526587247848510742187500 -0.05788719654083251953125000000000 -0.05362596362829208374023437500000 -0.08961882442235946655273437500000 -0.08108498901128768920898437500000 0.05398155748844146728515625000000 0.07216478139162063598632812500000 0.05793964490294456481933593750000 0.09079435467720031738281250000000 0.02472577616572380065917968750000 0.04697772487998008728027343750000 0.06774034351110458374023437500000 0.07212463021278381347656250000000 0.06893600523471832275390625000000 -0.02398195117712020874023437500000 -0.05687027797102928161621093750000 -0.07281118631362915039062500000000 -0.03266447782516479492187500000000 -0.04653111100196838378906250000000 -0.07010123133659362792968750000000 -0.04603663459420204162597656250000 -0.02828336507081985473632812500000 -0.00693524908274412155151367187500 0.01752622611820697784423828125000 0.07403305172920227050781250000000 0.05646961927413940429687500000000 0.05613181740045547485351562500000 0.11186176538467407226562500000000 0.03363529220223426818847656250000 -0.06493525952100753784179687500000 -0.10018522292375564575195312500000 -0.07180460542440414428710937500000 -0.05602658912539482116699218750000 -0.05409210175275802612304687500000 0.02426089905202388763427734375000 -0.00585297821089625358581542968750 0.01416032016277313232421875000000 -0.07119978964328765869140625000000 -0.00510947545990347862243652343750 0.03080101311206817626953125000000 0.05969974771142005920410156250000 0.12681637704372406005859375000000 0.13975141942501068115234375000000 0.15989799797534942626953125000000 0.13596719503402709960937500000000 0.07328381389379501342773437500000 -0.03233642131090164184570312500000 -0.26531121134757995605468750000000 -0.24534088373184204101562500000000 -0.19219066202640533447265625000000 -0.09805150330066680908203125000000 -0.07346510142087936401367187500000 0.01842852123081684112548828125000 -0.00928459037095308303833007812500 -0.06596419215202331542968750000000 0.02085795812308788299560546875000 -0.02060047350823879241943359375000 0.08506628125905990600585937500000 0.04507970437407493591308593750000 0.16238377988338470458984375000000 0.13177254796028137207031250000000 0.12895828485488891601562500000000 0.08625640720129013061523437500000 0.04027717188000679016113281250000 -0.10689903050661087036132812500000 -0.23824903368949890136718750000000 -0.21514667570590972900390625000000 -0.05373368412256240844726562500000 0.00180631538387387990951538085938 0.01225368585437536239624023437500 0.06403181701898574829101562500000 0.09672483056783676147460937500000 0.08261292427778244018554687500000 0.04660193249583244323730468750000 0.11820698529481887817382812500000 0.11388972401618957519531250000000 0.16043882071971893310546875000000 0.13549755513668060302734375000000 0.13574638962745666503906250000000 0.12686797976493835449218750000000 0.20781096816062927246093750000000 0.14310351014137268066406250000000 0.06259372830390930175781250000000 -0.10542657226324081420898437500000 -0.07362146675586700439453125000000 0.02359787933528423309326171875000 0.05093662813305854797363281250000 0.02823002822697162628173828125000 0.08448016643524169921875000000000 0.06510896980762481689453125000000 0.13402245938777923583984375000000 0.09109259396791458129882812500000 0.15970367193222045898437500000000 0.18416623771190643310546875000000 0.21189415454864501953125000000000 0.21290600299835205078125000000000 0.15978561341762542724609375000000 0.22629845142364501953125000000000 0.27436017990112304687500000000000 0.16649889945983886718750000000000 0.06048145145177841186523437500000 -0.02017100341618061065673828125000 0.06285896152257919311523437500000 0.11486087739467620849609375000000 0.10287638753652572631835937500000 0.13314966857433319091796875000000 0.10494597256183624267578125000000 0.07811389863491058349609375000000 0.08945114165544509887695312500000 0.19602946937084197998046875000000 0.10974176228046417236328125000000 0.20006752014160156250000000000000 0.19306953251361846923828125000000 0.21278345584869384765625000000000 0.22097283601760864257812500000000 0.25764396786689758300781250000000 0.25491943955421447753906250000000 0.10755705833435058593750000000000 0.07326672226190567016601562500000 -0.01899437233805656433105468750000 0.06359289586544036865234375000000 0.11909635365009307861328125000000 0.16253665089607238769531250000000 0.08719599246978759765625000000000 0.04184246063232421875000000000000 0.06551359593868255615234375000000 0.07732073217630386352539062500000 0.11245446652173995971679687500000 0.14612273871898651123046875000000 0.11933883279561996459960937500000 0.18661707639694213867187500000000 0.22509598731994628906250000000000 0.27192920446395874023437500000000 0.21153023838996887207031250000000 0.18861998617649078369140625000000 0.13227041065692901611328125000000 -0.02523717097938060760498046875000 -0.02508652769029140472412109375000 0.02914912812411785125732421875000 0.12854515016078948974609375000000 0.17410796880722045898437500000000 0.12618261575698852539062500000000 0.03001471236348152160644531250000 0.03844543546438217163085937500000 -0.05141590163111686706542968750000 0.06976488977670669555664062500000 0.06987795978784561157226562500000 0.10380753874778747558593750000000 0.24408535659313201904296875000000 0.29052275419235229492187500000000 0.18420198559761047363281250000000 0.20204402506351470947265625000000 0.15873701870441436767578125000000 0.15225605666637420654296875000000 -0.05555362254381179809570312500000 -0.03774995356798171997070312500000 0.05925356596708297729492187500000 0.16995574533939361572265625000000 0.15212075412273406982421875000000 0.12526370584964752197265625000000 0.02310780249536037445068359375000 0.01201683562248945236206054687500 0.00470370054244995117187500000000 0.00063667597714811563491821289062 0.03088972717523574829101562500000 0.06541486829519271850585937500000 0.22696258127689361572265625000000 0.21836723387241363525390625000000 0.16823069751262664794921875000000 0.14828601479530334472656250000000 0.18083231151103973388671875000000 0.09276282042264938354492187500000 -0.05467019230127334594726562500000 -0.05235771089792251586914062500000 0.09341839700937271118164062500000 0.12806530296802520751953125000000 0.16162279248237609863281250000000 0.12053788453340530395507812500000 0.04758142307400703430175781250000 0.04936950653791427612304687500000 0.01611399836838245391845703125000 -0.04864315316081047058105468750000 -0.03585056960582733154296875000000 0.05794156342744827270507812500000 0.08041290193796157836914062500000 0.09303653985261917114257812500000 0.09501077234745025634765625000000 0.13656593859195709228515625000000 0.09874021261930465698242187500000 0.08221975713968276977539062500000 -0.06666949391365051269531250000000 -0.02462257631123065948486328125000 0.06004045158624649047851562500000 0.13061860203742980957031250000000 0.10385750234127044677734375000000 0.04700176045298576354980468750000 0.03470223397016525268554687500000 0.02916559576988220214843750000000 -0.02561134472489356994628906250000 -0.04497095942497253417968750000000 -0.01132210530340671539306640625000 0.04266107827425003051757812500000 0.03876668214797973632812500000000 0.00067712680902332067489624023438 -0.04158375784754753112792968750000 0.04400274157524108886718750000000 0.06733997166156768798828125000000 0.04679792001843452453613281250000 0.00504680490121245384216308593750 0.00543987331911921501159667968750 0.02177437208592891693115234375000 0.01974648050963878631591796875000 0.02792535908520221710205078125000 0.05444173514842987060546875000000 0.12709948420524597167968750000000 0.07514702528715133666992187500000 -0.03599946945905685424804687500000 -0.09520844370126724243164062500000 0.00493522267788648605346679687500 -0.08841589838266372680664062500000 -0.07714460790157318115234375000000 -0.06816236674785614013671875000000 -0.06065226346254348754882812500000 -0.06866257637739181518554687500000 -0.03966091573238372802734375000000 -0.04133081436157226562500000000000 0.05573235824704170227050781250000 0.01045777369290590286254882812500 0.06268049031496047973632812500000 0.08306601643562316894531250000000 -0.00415188912302255630493164062500 0.06250400841236114501953125000000 0.02458290196955204010009765625000 0.04494531080126762390136718750000 -0.01738154143095016479492187500000 -0.01621831580996513366699218750000 -0.09997351467609405517578125000000 -0.06493423134088516235351562500000 -0.08244643360376358032226562500000 -0.09473239630460739135742187500000 -0.02121768146753311157226562500000 -0.00440425705164670944213867187500 0.04463775083422660827636718750000 0.16139483451843261718750000000000 0.08571951091289520263671875000000 0.12989139556884765625000000000000 0.05074602738022804260253906250000 0.01458275318145751953125000000000 0.02283604629337787628173828125000 -0.02002272754907608032226562500000 0.02358113788068294525146484375000 0.04077168926596641540527343750000 -0.00590359512716531753540039062500 0.00306850485503673553466796875000 -0.17614126205444335937500000000000 -0.13494475185871124267578125000000 -0.15629549324512481689453125000000 -0.03304713591933250427246093750000 0.00383529090322554111480712890625 0.03948774561285972595214843750000 0.11364647001028060913085937500000 0.16657017171382904052734375000000 0.24894669651985168457031250000000 0.09658388793468475341796875000000 0.01061823219060897827148437500000 -0.03593462333083152770996093750000 -0.04878855869174003601074218750000 -0.03475389629602432250976562500000 0.04114042967557907104492187500000 0.08076409250497817993164062500000 0.08007894456386566162109375000000 0.05865493789315223693847656250000
-0.02355645224452018737792968750000 0.06796190142631530761718750000000 0.05262871086597442626953125000000 0.08482443541288375854492187500000 0.14038157463073730468750000000000 0.10058960318565368652343750000000 0.19221320748329162597656250000000 0.22699573636054992675781250000000 0.27678704261779785156250000000000 0.25160002708435058593750000000000 0.26521819829940795898437500000000 0.15689074993133544921875000000000 0.13838398456573486328125000000000 0.06889368593692779541015625000000 0.01592234708368778228759765625000 -0.06144510954618453979492187500000 -0.08193354308605194091796875000000 -0.17978523671627044677734375000000 0.02897462248802185058593750000000 -0.00386619265191256999969482421875 0.01416521426290273666381835937500 -0.00542203476652503013610839843750 0.04761813953518867492675781250000 0.01203598454594612121582031250000 0.08922377228736877441406250000000 0.10711593925952911376953125000000 0.14509364962577819824218750000000 0.17455875873565673828125000000000 0.17567856609821319580078125000000 0.16691698133945465087890625000000 0.12452743202447891235351562500000 0.06000167876482009887695312500000 0.02575336582958698272705078125000 -0.03889454528689384460449218750000 -0.09619615972042083740234375000000 -0.20838746428489685058593750000000 0.03367016464471817016601562500000 0.03858074918389320373535156250000 -0.05099370330572128295898437500000 0.02411857806146144866943359375000 -0.00709379743784666061401367187500 0.02575476281344890594482421875000 -0.01408087648451328277587890625000 0.12291534990072250366210937500000 0.14136934280395507812500000000000 0.13669823110103607177734375000000 0.19835199415683746337890625000000 0.12898503243923187255859375000000 0.05144448950886726379394531250000 0.04796366766095161437988281250000 0.03794820606708526611328125000000 0.01602277345955371856689453125000 -0.00885051488876342773437500000000 -0.18089017271995544433593750000000 0.04067375138401985168457031250000 0.03695420920848846435546875000000 0.03085730411112308502197265625000 0.00157432095147669315338134765625 0.03726850822567939758300781250000 0.11130231618881225585937500000000 0.02917046099901199340820312500000 0.07919872552156448364257812500000 0.13578332960605621337890625000000 0.22241933643817901611328125000000 0.18309278786182403564453125000000 0.13389903306961059570312500000000 0.06766300648450851440429687500000 0.01574227586388587951660156250000 0.06765326112508773803710937500000 0.04551307111978530883789062500000 -0.05614738166332244873046875000000 -0.11449602246284484863281250000000 0.05764501541852951049804687500000 0.06185978278517723083496093750000 0.08540385216474533081054687500000 0.02142230235040187835693359375000 0.06015016138553619384765625000000 0.01767087355256080627441406250000 -0.01192361023277044296264648437500 -0.03836525604128837585449218750000 0.07448397576808929443359375000000 0.12607485055923461914062500000000 0.13316944241523742675781250000000 0.06749282032251358032226562500000 0.07904719561338424682617187500000 0.03417392820119857788085937500000 0.08201725780963897705078125000000 0.04981693252921104431152343750000 -0.01839620620012283325195312500000 -0.03903278708457946777343750000000 -0.00662142178043723106384277343750 0.08064014464616775512695312500000 -0.04204388707876205444335937500000 -0.00292735896073281764984130859375 -0.07448984682559967041015625000000 -0.07375390827655792236328125000000 -0.08707023411989212036132812500000 -0.13201066851615905761718750000000 -0.11208147555589675903320312500000 0.01401826273649930953979492187500 0.02477583289146423339843750000000 0.02617222443222999572753906250000 0.02235282398760318756103515625000 0.11147116869688034057617187500000 0.05231390520930290222167968750000 0.03803684934973716735839843750000 0.09286200255155563354492187500000 -0.00840815808624029159545898437500 -0.06505802273750305175781250000000 -0.09501900523900985717773437500000 -0.08477336913347244262695312500000 -0.07755474746227264404296875000000 -0.10422857105731964111328125000000 -0.18852427601814270019531250000000 -0.18616288900375366210937500000000 -0.20561149716377258300781250000000 -0.13402162492275238037109375000000 0.04998513683676719665527343750000 -0.03714547678828239440917968750000 -0.04728683084249496459960937500000 -0.03493063151836395263671875000000 0.11083611845970153808593750000000 0.19269613921642303466796875000000 0.21503235399723052978515625000000 0.14648103713989257812500000000000 0.10010588914155960083007812500000 -0.08563079684972763061523437500000 -0.16704249382019042968750000000000 -0.16586035490036010742187500000000 -0.22360625863075256347656250000000 -0.14257907867431640625000000000000 -0.16903041303157806396484375000000 -0.22603011131286621093750000000000 -0.17009800672531127929687500000000 0.01197571307420730590820312500000 0.17558318376541137695312500000000 0.04097255691885948181152343750000 -0.02684960328042507171630859375000 0.00452388776466250419616699218750 0.05958429723978042602539062500000 0.14275576174259185791015625000000 0.20388694107532501220703125000000 0.16314148902893066406250000000000 0.09630837291479110717773437500000 -0.17980793118476867675781250000000 -0.21765449643135070800781250000000 -0.24480691552162170410156250000000 -0.14224004745483398437500000000000 -0.17699928581714630126953125000000 -0.19568005204200744628906250000000 -0.13432905077934265136718750000000 -0.02163938432931900024414062500000 0.11763280630111694335937500000000 0.17160339653491973876953125000000 0.10682276636362075805664062500000 0.04413764551281929016113281250000 -0.01192372106015682220458984375000 0.01174797676503658294677734375000 0.02054129727184772491455078125000 0.01858723536133766174316406250000 0.00790331792086362838745117187500 -0.01295609865337610244750976562500 -0.14309822022914886474609375000000 -0.17143385112285614013671875000000 -0.14332997798919677734375000000000 -0.07061680406332015991210937500000 -0.13050784170627593994140625000000 -0.13677600026130676269531250000000 -0.10500321537256240844726562500000 0.08238069713115692138671875000000 0.22429963946342468261718750000000 0.15676851570606231689453125000000 0.14163024723529815673828125000000 -0.02502037025988101959228515625000 0.01775207743048667907714843750000 -0.02051127701997756958007812500000 -0.06065084040164947509765625000000 -0.07461936026811599731445312500000 -0.06059982627630233764648437500000 -0.07544390112161636352539062500000 -0.02317425236105918884277343750000 -0.06791331619024276733398437500000 -0.06610762327909469604492187500000 -0.04352288320660591125488281250000 -0.04063745960593223571777343750000 -0.06966377049684524536132812500000 -0.06287517398595809936523437500000 0.12773111462593078613281250000000 0.19899739325046539306640625000000 0.21359902620315551757812500000000 0.03611735254526138305664062500000 -0.00344903627410531044006347656250 -0.08432427048683166503906250000000 -0.13416463136672973632812500000000 -0.12353261560201644897460937500000 -0.12981258332729339599609375000000 -0.09226766228675842285156250000000 -0.06732919067144393920898437500000 0.01412642560899257659912109375000 -0.01232356298714876174926757812500 0.00627775257453322410583496093750 -0.04438562318682670593261718750000 0.06468746066093444824218750000000 0.06761781126260757446289062500000 0.05782431364059448242187500000000 0.21160069108009338378906250000000 0.15471614897251129150390625000000 0.06485376507043838500976562500000 -0.04281618073582649230957031250000 -0.03536107018589973449707031250000 -0.02208366990089416503906250000000 -0.03147822991013526916503906250000 -0.09174530208110809326171875000000 -0.11820927262306213378906250000000 -0.05439547076821327209472656250000 0.01602086611092090606689453125000 0.03828870877623558044433593750000 -0.02746538817882537841796875000000 0.01480033062398433685302734375000 0.06453179568052291870117187500000 0.13269546627998352050781250000000 0.10829471796751022338867187500000 0.11744558066129684448242187500000 0.18383254110813140869140625000000 0.09676206856966018676757812500000 -0.07580580562353134155273437500000 -0.03920454531908035278320312500000 -0.02336248010396957397460937500000 -0.05814584344625473022460937500000 -0.06284459680318832397460937500000 0.00319308391772210597991943359375 -0.00025257590459659695625305175781 0.05608992651104927062988281250000 0.14340472221374511718750000000000 0.11765272915363311767578125000000 -0.02757912129163742065429687500000 -0.03247095271944999694824218750000 0.07836359739303588867187500000000 0.14022617042064666748046875000000 0.18911626935005187988281250000000 0.12505930662155151367187500000000 0.13132119178771972656250000000000 -0.00403202511370182037353515625000 -0.04795137792825698852539062500000 -0.01512060593813657760620117187500 0.02795632556080818176269531250000 0.08445185422897338867187500000000 0.06344275921583175659179687500000 0.08713469654321670532226562500000 0.03763008862733840942382812500000 0.06200366839766502380371093750000 0.21408098936080932617187500000000 0.08780778199434280395507812500000 0.04908375814557075500488281250000 0.06914480775594711303710937500000 0.08703570067882537841796875000000 0.14763121306896209716796875000000 0.10809704661369323730468750000000 0.06435118615627288818359375000000 -0.04012773931026458740234375000000 0.03954003006219863891601562500000 -0.04129476100206375122070312500000 0.01207495573908090591430664062500 0.06478598713874816894531250000000 0.09243500977754592895507812500000 0.05876164510846138000488281250000 0.14393672347068786621093750000000 0.11137384921312332153320312500000 0.11171039193868637084960937500000 0.18999525904655456542968750000000 0.13020448386669158935546875000000 0.10162161290645599365234375000000 0.19476854801177978515625000000000 0.14126992225646972656250000000000 0.09460571408271789550781250000000 0.07932922244071960449218750000000 -0.01373944804072380065917968750000 0.01143435761332511901855468750000 -0.00846850872039794921875000000000 0.04879629239439964294433593750000 0.05984761193394660949707031250000 0.05174797773361206054687500000000 0.10385696589946746826171875000000 0.11072213947772979736328125000000 0.14745298027992248535156250000000 0.12724618613719940185546875000000 0.13002805411815643310546875000000 0.17692951858043670654296875000000 0.11121794581413269042968750000000 0.16255131363868713378906250000000 0.11819834262132644653320312500000 0.05792538076639175415039062500000 0.08570373058319091796875000000000 0.06262543797492980957031250000000 0.04322057589888572692871093750000 0.05277218297123908996582031250000 0.09305738657712936401367187500000 0.05808860808610916137695312500000 0.07864160090684890747070312500000 0.06935403496026992797851562500000 0.06266340613365173339843750000000 0.15033647418022155761718750000000 0.13849912583827972412109375000000 0.10738156735897064208984375000000 0.12121494114398956298828125000000 0.13854806125164031982421875000000 0.10365157574415206909179687500000 0.09274060279130935668945312500000 0.09171237796545028686523437500000 0.03902290761470794677734375000000 0.07431486248970031738281250000000 0.07363003492355346679687500000000 0.13561709225177764892578125000000 0.13658595085144042968750000000000 0.14321738481521606445312500000000 0.11343450099229812622070312500000 0.07276390492916107177734375000000 0.00459242984652519226074218750000 0.06373123824596405029296875000000 0.09195499122142791748046875000000 0.07954239100217819213867187500000 0.11840206384658813476562500000000 0.04579846560955047607421875000000 0.07077644020318984985351562500000
-0.00063408020650967955589294433594 -0.01139273028820753097534179687500 -0.06901137530803680419921875000000 0.04418618604540824890136718750000 -0.01175346970558166503906250000000 0.11710768938064575195312500000000 0.08747293055057525634765625000000 0.07062754780054092407226562500000 0.06945597380399703979492187500000 0.06803249567747116088867187500000 0.11611878126859664916992187500000 0.16612522304058074951171875000000 0.18505598604679107666015625000000 0.13158749043941497802734375000000 0.01148367393761873245239257812500 0.07164863497018814086914062500000 0.04021698608994483947753906250000 0.05224927887320518493652343750000 -0.06184763833880424499511718750000 -0.00708293076604604721069335937500 0.03491440042853355407714843750000 0.08766832202672958374023437500000 0.11282822489738464355468750000000 0.15801997482776641845703125000000 0.13488830626010894775390625000000 0.19262538850307464599609375000000 0.10705457627773284912109375000000 0.07170786708593368530273437500000 0.11486806720495223999023437500000 0.10683800280094146728515625000000 0.13279619812965393066406250000000 0.11865777522325515747070312500000 0.09787163138389587402343750000000 0.11748073250055313110351562500000 0.13866481184959411621093750000000 0.16008114814758300781250000000000 -0.06992465257644653320312500000000 0.02751542627811431884765625000000 0.07939203828573226928710937500000 0.12645195424556732177734375000000 0.13558277487754821777343750000000 0.13407744467258453369140625000000 0.20229713618755340576171875000000 0.07563809305429458618164062500000 0.09690221399068832397460937500000 0.06629433482885360717773437500000 0.00434010103344917297363281250000 0.04605008289217948913574218750000 0.11198729276657104492187500000000 0.10377570241689682006835937500000 0.14789544045925140380859375000000 0.06259150058031082153320312500000 0.14201541244983673095703125000000 0.27983617782592773437500000000000 -0.01751496456563472747802734375000 0.00278386357240378856658935546875 0.05886762961745262145996093750000 0.09602499753236770629882812500000 0.21849033236503601074218750000000 0.20719236135482788085937500000000 0.17164896428585052490234375000000 0.19106285274028778076171875000000 0.12388046085834503173828125000000 0.06179568916559219360351562500000 0.03671251609921455383300781250000 0.14411075413227081298828125000000 0.11125758290290832519531250000000 0.12995789945125579833984375000000 0.10943572968244552612304687500000 0.17621612548828125000000000000000 0.15478900074958801269531250000000 0.29875957965850830078125000000000 0.05115063115954399108886718750000 0.03536822274327278137207031250000 0.09666705131530761718750000000000 0.11312217265367507934570312500000 0.16799762845039367675781250000000 0.18552848696708679199218750000000 0.22411063313484191894531250000000 0.14098146557807922363281250000000 0.12182024121284484863281250000000 0.05758148059248924255371093750000 -0.03307892009615898132324218750000 0.06775660067796707153320312500000 0.03963240236043930053710937500000 0.14123521745204925537109375000000 0.12411314994096755981445312500000 0.10236824303865432739257812500000 0.20544856786727905273437500000000 0.40147364139556884765625000000000 0.00307745113968849182128906250000 -0.01969467476010322570800781250000 0.05188159272074699401855468750000 0.10421599447727203369140625000000 0.12931752204895019531250000000000 0.10934845358133316040039062500000 0.16094015538692474365234375000000 0.15346361696720123291015625000000 0.09022860229015350341796875000000 0.05686024948954582214355468750000 -0.05855710431933403015136718750000 0.02102297358214855194091796875000 -0.00347432284615933895111083984375 0.08352552354335784912109375000000 0.02499568648636341094970703125000 0.08980612456798553466796875000000 0.11328049749135971069335937500000 0.17050087451934814453125000000000 0.00940098613500595092773437500000 0.04588809236884117126464843750000 0.03664917498826980590820312500000 0.03598070517182350158691406250000 0.04638018831610679626464843750000 0.01361058745533227920532226562500 0.02979132160544395446777343750000 0.10241545736789703369140625000000 0.16260059177875518798828125000000 0.00446330662816762924194335937500 -0.16594187915325164794921875000000 -0.19058711826801300048828125000000 -0.12603868544101715087890625000000 -0.09018806368112564086914062500000 -0.14531922340393066406250000000000 -0.21053038537502288818359375000000 -0.14656016230583190917968750000000 -0.05725729092955589294433593750000 -0.06809964776039123535156250000000 -0.03524392098188400268554687500000 -0.04867792874574661254882812500000 0.00990532338619232177734375000000 -0.05783081799745559692382812500000 0.09878800064325332641601562500000 0.10112231969833374023437500000000 0.14544557034969329833984375000000 0.09682282805442810058593750000000 -0.09675726294517517089843750000000 -0.21981161832809448242187500000000 -0.27912688255310058593750000000000 -0.18729692697525024414062500000000 -0.11850991845130920410156250000000 -0.15945960581302642822265625000000 -0.17158778011798858642578125000000 -0.17055377364158630371093750000000 -0.13527506589889526367187500000000 -0.07207922637462615966796875000000 -0.04124577343463897705078125000000 -0.03435089811682701110839843750000 0.01777315884828567504882812500000 0.02763620577752590179443359375000 0.07042617350816726684570312500000 0.10342598706483840942382812500000 0.13118980824947357177734375000000 0.05816869065165519714355468750000 -0.13218586146831512451171875000000 -0.23599267005920410156250000000000 -0.26856747269630432128906250000000 -0.18335409462451934814453125000000 -0.08263933658599853515625000000000 -0.07327511906623840332031250000000 -0.12034869939088821411132812500000 -0.18209320306777954101562500000000 -0.12081085890531539916992187500000 -0.10482873767614364624023437500000 -0.06570680439472198486328125000000 -0.01914018578827381134033203125000 0.00244050635956227779388427734375 0.08667761832475662231445312500000 0.10891563445329666137695312500000 0.03993655741214752197265625000000 0.00993651244789361953735351562500 0.05975035205483436584472656250000 -0.10064425319433212280273437500000 -0.16633935272693634033203125000000 -0.22253859043121337890625000000000 -0.16786795854568481445312500000000 -0.08192222565412521362304687500000 -0.11647669970989227294921875000000 -0.11949073523283004760742187500000 -0.07799138873815536499023437500000 -0.09175892174243927001953125000000 -0.02315487153828144073486328125000 -0.07627490162849426269531250000000 -0.04975732415914535522460937500000 0.01127418410032987594604492187500 0.07438965886831283569335937500000 0.07193484902381896972656250000000 0.00635914225131273269653320312500 -0.04081433638930320739746093750000 -0.02434748597443103790283203125000 -0.10903373360633850097656250000000 -0.18110477924346923828125000000000 -0.19041684269905090332031250000000 -0.10265386849641799926757812500000 0.00655682012438774108886718750000 -0.00393950613215565681457519531250 -0.04927272349596023559570312500000 -0.04494712501764297485351562500000 -0.04342508688569068908691406250000 -0.06039771065115928649902343750000 -0.06763432174921035766601562500000 -0.12406486272811889648437500000000 -0.09013251215219497680664062500000 -0.07455878704786300659179687500000 -0.05338083207607269287109375000000 -0.10980955511331558227539062500000 0.03295553475618362426757812500000 -0.01644134148955345153808593750000 -0.07656238228082656860351562500000 -0.13979144394397735595703125000000 -0.14210218191146850585937500000000 -0.03661405295133590698242187500000 -0.05141574889421463012695312500000 -0.00937976501882076263427734375000 -0.05636790022253990173339843750000 0.02120885998010635375976562500000 0.08831858634948730468750000000000 0.10319301486015319824218750000000 0.09317550063133239746093750000000 -0.05461134761571884155273437500000 -0.15415196120738983154296875000000 -0.17435927689075469970703125000000 -0.09652932733297348022460937500000 -0.11810545623302459716796875000000 -0.08018971234560012817382812500000 -0.13056901097297668457031250000000 -0.16266897320747375488281250000000 -0.10847692191600799560546875000000 0.02200240269303321838378906250000 0.04653095081448554992675781250000 0.10247354209423065185546875000000 0.05125349387526512145996093750000 0.02279515191912651062011718750000 0.08481103181838989257812500000000 0.05615126341581344604492187500000 0.21481971442699432373046875000000 0.26970589160919189453125000000000 0.12168947607278823852539062500000 -0.07207635045051574707031250000000 -0.15683907270431518554687500000000 -0.12289018183946609497070312500000 -0.15981437265872955322265625000000 -0.13351625204086303710937500000000 -0.07528319954872131347656250000000 -0.08072411268949508666992187500000 0.00616947142407298088073730468750 0.06489162147045135498046875000000 0.08934628218412399291992187500000 -0.00366026395931839942932128906250 0.07055318355560302734375000000000 -0.02231761254370212554931640625000 0.09963568300008773803710937500000 0.19305007159709930419921875000000 0.16762150824069976806640625000000 0.34764733910560607910156250000000 0.19588994979858398437500000000000 0.17257137596607208251953125000000 0.11676404625177383422851562500000 0.04398678243160247802734375000000 0.04142946004867553710937500000000 0.10425301641225814819335937500000 0.12657935917377471923828125000000 0.06262745708227157592773437500000 0.03483380377292633056640625000000 0.00272705545648932456970214843750 -0.01167170889675617218017578125000 0.08217573165893554687500000000000 0.02660384215414524078369140625000 0.03617870435118675231933593750000 0.11712482571601867675781250000000 0.15670718252658843994140625000000 0.14669725298881530761718750000000 0.26783111691474914550781250000000 0.20045989751815795898437500000000 0.25585958361625671386718750000000 0.17578898370265960693359375000000 0.20207229256629943847656250000000 0.09959950298070907592773437500000 0.16744868457317352294921875000000 0.06971060484647750854492187500000 0.05558190867304801940917968750000 0.00099374202545732259750366210938 0.01719512045383453369140625000000 -0.01827790401875972747802734375000 0.01569195277988910675048828125000 0.00918821152299642562866210937500 -0.00418524490669369697570800781250 0.13198010623455047607421875000000 0.18037147819995880126953125000000 0.05143441632390022277832031250000 0.15117396414279937744140625000000 0.20685306191444396972656250000000 0.16880492866039276123046875000000 0.15953168272972106933593750000000 0.07075399905443191528320312500000 0.07743759453296661376953125000000 0.02526700869202613830566406250000 0.02206128649413585662841796875000 0.02162187732756137847900390625000 0.03826923668384552001953125000000 0.04449233785271644592285156250000 -0.03401844948530197143554687500000 0.05067745968699455261230468750000 0.05858400836586952209472656250000 0.06408314406871795654296875000000 0.14341662824153900146484375000000 0.14247620105743408203125000000000 0.02638459391891956329345703125000 0.07330175489187240600585937500000 0.05469850450754165649414062500000 0.17839272320270538330078125000000 0.10633032023906707763671875000000 0.17639990150928497314453125000000 0.21251283586025238037109375000000 0.21944276988506317138671875000000 0.27538332343101501464843750000000 0.23722469806671142578125000000000 0.18521717190742492675781250000000 0.19616563618183135986328125000000 0.11750059574842453002929687500000 0.06640023738145828247070312500000 0.04783890768885612487792968750000 0.01898335665464401245117187500000 0.03196956589818000793457031250000 0.00804039929062128067016601562500
