-0.16275314986705780029296875000000 -0.50008797645568847656250000000000 -0.15818993747234344482421875000000 -1.15159690380096435546875000000000 -0.73325097560882568359375000000000 0.43703785538673400878906250000000 -0.16838942468166351318359375000000 0.99027693271636962890625000000000 -0.03642345592379570007324218750000 0.76785475015640258789062500000000
0.19540251791477203369140625000000 0.16606327891349792480468750000000 0.16756309568881988525390625000000 1.19924795627593994140625000000000 -0.31638556718826293945312500000000 -1.42570352554321289062500000000000 0.36488607525825500488281250000000 -0.50886291265487670898437500000000 -0.29993563890457153320312500000000 0.13267539441585540771484375000000
-0.86028927564620971679687500000000 0.70965701341629028320312500000000 0.00990684144198894500732421875000 -0.65444284677505493164062500000000 0.48815622925758361816406250000000 -0.15403062105178833007812500000000 1.01559519767761230468750000000000 0.33490401506423950195312500000000 0.02306575514376163482666015625000 -0.38315927982330322265625000000000
0.72511827945709228515625000000000 0.46143704652786254882812500000000 -0.22270509600639343261718750000000 -0.57334119081497192382812500000000 -0.32340779900550842285156250000000 -0.45646992325782775878906250000000 0.47200718522071838378906250000000 0.28340694308280944824218750000000 0.89830487966537475585937500000000 -0.37460222840309143066406250000000
-0.62531608343124389648437500000000 -0.21574580669403076171875000000000 -0.22100614011287689208984375000000 0.24222220480442047119140625000000 0.55946111679077148437500000000000 0.74332600831985473632812500000000 -0.99821037054061889648437500000000 -0.75853359699249267578125000000000 0.92515498399734497070312500000000 -0.23765310645103454589843750000000
0.10710326582193374633789062500000 0.00510070333257317543029785156250 -0.13850042223930358886718750000000 0.31604537367820739746093750000000 -0.46037334203720092773437500000000 0.25252842903137207031250000000000 -0.73179179430007934570312500000000 1.24446535110473632812500000000000 -0.04519015923142433166503906250000 -0.33708208799362182617187500000000
-1.02330434322357177734375000000000 0.93931472301483154296875000000000 0.25821936130523681640625000000000 0.36475723981857299804687500000000 -0.69704663753509521484375000000000 0.82310974597930908203125000000000 -0.40063351392745971679687500000000 -0.41931629180908203125000000000000 -0.51872110366821289062500000000000 0.56622350215911865234375000000000
0.87175422906875610351562500000000 0.30492272973060607910156250000000 -0.02513493597507476806640625000000 -0.50565195083618164062500000000000 1.20556342601776123046875000000000 -0.57252454757690429687500000000000 -0.55305594205856323242187500000000 -0.47609779238700866699218750000000 -0.35107296705245971679687500000000 0.61735838651657104492187500000000
-0.29034280776977539062500000000000 -0.88369703292846679687500000000000 0.13299834728240966796875000000000 0.46240997314453125000000000000000 -0.05803539603948593139648437500000 0.25489363074302673339843750000000 0.56919068098068237304687500000000 0.25202336907386779785156250000000 -0.08035402745008468627929687500000 -0.32494291663169860839843750000000
0.75318706035614013671875000000000 -1.01961684226989746093750000000000 -0.20968911051750183105468750000000 -0.09659443050622940063476562500000 0.16473659873008728027343750000000 0.73386245965957641601562500000000 -0.23474733531475067138671875000000 -0.99844533205032348632812500000000 -0.40681251883506774902343750000000 -0.27245432138442993164062500000000
